digraph Tree {
node [shape=box] ;
0 [label="Water_cool <= 0.5\ngini = 0.48\nsamples = 5\nvalue = [2, 3]"] ;
1 [label="Wind_strong <= 0.5\ngini = 0.375\nsamples = 4\nvalue = [1, 3]"] ;
0 -> 1 [labeldistance=2.5, labelangle=45, headlabel="True"] ;
2 [label="gini = 0.0\nsamples = 1\nvalue = [1, 0]"] ;
1 -> 2 ;
3 [label="gini = 0.0\nsamples = 3\nvalue = [0, 3]"] ;
1 -> 3 ;
4 [label="gini = 0.0\nsamples = 1\nvalue = [1, 0]"] ;
0 -> 4 [labeldistance=2.5, labelangle=-45, headlabel="False"] ;
}